svm_type c_svc
kernel_type linear
nr_class 3
total_sv 6
rho 0 0 0
label 1 2 3
nr_sv 2 2 2
SV
1 1 5:0.3 6:0.1 7:0.8 8:0.5 
1 1 1:0.3 2:0.1 3:0.8 4:0.5 
-1 1 1:0.3 2:0.1 3:0.8 4:0.5 
-1 1 1:0.3 2:0.1 3:0.8 4:0.5 
-1 -1 1:0.3 2:0.1 3:0.8 4:0.5 
-1 -1 1:0.3 2:0.1 3:0.8 4:0.5 
